<?xml version="1.0"?>
<opencv_storage>
<stage5>
  <maxWeakCount>5</maxWeakCount>
  <stageThreshold>3.6572977900505066e-01</stageThreshold>
  <weakClassifiers>
    <_>
      <internalNodes>
        0 -1 161962 6.0653220862150192e-03</internalNodes>
      <leafValues>
        -7.9591834545135498e-01 5.7692307233810425e-01</leafValues></_>
    <_>
      <internalNodes>
        0 -1 62804 -1.2866744399070740e-01</internalNodes>
      <leafValues>
        4.1073048114776611e-01 -1.</leafValues></_>
    <_>
      <internalNodes>
        0 -1 13345 2.6546549052000046e-03</internalNodes>
      <leafValues>
        -7.5557309389114380e-01 6.0886764526367188e-01</leafValues></_>
    <_>
      <internalNodes>
        0 -1 149588 -1.0736869648098946e-02</internalNodes>
      <leafValues>
        9.0143948793411255e-01 -5.4382705688476563e-01</leafValues></_>
    <_>
      <internalNodes>
        0 -1 128761 2.2542811930179596e-02</internalNodes>
      <leafValues>
        -6.8696439266204834e-01 7.6665276288986206e-01</leafValues></_></weakClassifiers></stage5>
</opencv_storage>
