<?xml version="1.0"?>
<opencv_storage>
<stage6>
  <maxWeakCount>8</maxWeakCount>
  <stageThreshold>-4.6034184098243713e-01</stageThreshold>
  <weakClassifiers>
    <_>
      <internalNodes>
        0 -1 61220 -1.4408487081527710e-01</internalNodes>
      <leafValues>
        3.1531530618667603e-01 -8.4848487377166748e-01</leafValues></_>
    <_>
      <internalNodes>
        0 -1 161961 4.0430463850498199e-03</internalNodes>
      <leafValues>
        -5.7178658246994019e-01 5.7164865732192993e-01</leafValues></_>
    <_>
      <internalNodes>
        0 -1 119637 -1.0448532702866942e-04</internalNodes>
      <leafValues>
        7.1897929906845093e-01 -5.1695227622985840e-01</leafValues></_>
    <_>
      <internalNodes>
        0 -1 78180 -4.8915296792984009e-02</internalNodes>
      <leafValues>
        4.2106536030769348e-01 -8.3874654769897461e-01</leafValues></_>
    <_>
      <internalNodes>
        0 -1 24038 -4.4346415961626917e-05</internalNodes>
      <leafValues>
        4.9984812736511230e-01 -6.5736156702041626e-01</leafValues></_>
    <_>
      <internalNodes>
        0 -1 35908 -4.3621268123388290e-03</internalNodes>
      <leafValues>
        6.0653066635131836e-01 -5.9767132997512817e-01</leafValues></_>
    <_>
      <internalNodes>
        0 -1 159720 2.2107169570517726e-05</internalNodes>
      <leafValues>
        -5.4186373949050903e-01 6.3422536849975586e-01</leafValues></_>
    <_>
      <internalNodes>
        0 -1 11092 -8.1159751862287521e-03</internalNodes>
      <leafValues>
        4.5040991902351379e-01 -7.6350945234298706e-01</leafValues></_></weakClassifiers></stage6>
</opencv_storage>
