<?xml version="1.0"?>
<opencv_storage>
<stage2>
  <maxWeakCount>5</maxWeakCount>
  <stageThreshold>3.3390629291534424e-01</stageThreshold>
  <weakClassifiers>
    <_>
      <internalNodes>
        0 -1 15803 -8.8882576674222946e-03</internalNodes>
      <leafValues>
        6.8674701452255249e-01 -8.2978725433349609e-01</leafValues></_>
    <_>
      <internalNodes>
        0 -1 84679 1.0641803964972496e-02</internalNodes>
      <leafValues>
        -7.6289594173431396e-01 7.2874069213867188e-01</leafValues></_>
    <_>
      <internalNodes>
        0 -1 139556 -8.2637462764978409e-03</internalNodes>
      <leafValues>
        5.8323889970779419e-01 -8.7653362751007080e-01</leafValues></_>
    <_>
      <internalNodes>
        0 -1 96763 -3.2227106392383575e-02</internalNodes>
      <leafValues>
        6.0080909729003906e-01 -8.6223822832107544e-01</leafValues></_>
    <_>
      <internalNodes>
        0 -1 9549 -9.2959776520729065e-03</internalNodes>
      <leafValues>
        7.1067738533020020e-01 -7.0440208911895752e-01</leafValues></_></weakClassifiers></stage2>
</opencv_storage>
