<?xml version="1.0"?>
<opencv_storage>
<stage5>
  <maxWeakCount>7</maxWeakCount>
  <stageThreshold>4.5103228092193604e-01</stageThreshold>
  <weakClassifiers>
    <_>
      <internalNodes>
        0 -1 75626 -8.3744704723358154e-02</internalNodes>
      <leafValues>
        5.8974361419677734e-01 -6.7676764726638794e-01</leafValues></_>
    <_>
      <internalNodes>
        0 -1 49898 -4.3465793132781982e-02</internalNodes>
      <leafValues>
        5.0077658891677856e-01 -7.6174992322921753e-01</leafValues></_>
    <_>
      <internalNodes>
        0 -1 6151 -4.6246431767940521e-02</internalNodes>
      <leafValues>
        1. -3.6507406830787659e-01</leafValues></_>
    <_>
      <internalNodes>
        0 -1 13380 -3.6523619201034307e-04</internalNodes>
      <leafValues>
        4.0981864929199219e-01 -9.1055297851562500e-01</leafValues></_>
    <_>
      <internalNodes>
        0 -1 147400 4.5238895836519077e-05</internalNodes>
      <leafValues>
        -5.4668653011322021e-01 6.5717357397079468e-01</leafValues></_>
    <_>
      <internalNodes>
        0 -1 125389 -2.2858008742332458e-02</internalNodes>
      <leafValues>
        6.1208486557006836e-01 -7.1145093441009521e-01</leafValues></_>
    <_>
      <internalNodes>
        0 -1 104014 -1.7360596757498570e-05</internalNodes>
      <leafValues>
        6.3655614852905273e-01 -6.7554348707199097e-01</leafValues></_></weakClassifiers></stage5>
</opencv_storage>
