<?xml version="1.0"?>
<opencv_storage>
<stage4>
  <maxWeakCount>6</maxWeakCount>
  <stageThreshold>-1.8608981743454933e-02</stageThreshold>
  <weakClassifiers>
    <_>
      <internalNodes>
        0 -1 22527 1.7080813646316528e-02</internalNodes>
      <leafValues>
        -8.0434781312942505e-01 6.2352943420410156e-01</leafValues></_>
    <_>
      <internalNodes>
        0 -1 99325 -2.9185554012656212e-04</internalNodes>
      <leafValues>
        6.2093764543533325e-01 -8.1934446096420288e-01</leafValues></_>
    <_>
      <internalNodes>
        0 -1 13360 2.1417094394564629e-03</internalNodes>
      <leafValues>
        -6.7613029479980469e-01 7.1575748920440674e-01</leafValues></_>
    <_>
      <internalNodes>
        0 -1 125931 -1.6895126551389694e-02</internalNodes>
      <leafValues>
        7.0318478345870972e-01 -6.0548430681228638e-01</leafValues></_>
    <_>
      <internalNodes>
        0 -1 1068 -1.1560839414596558e-01</internalNodes>
      <leafValues>
        7.3642271757125854e-01 -5.7974803447723389e-01</leafValues></_>
    <_>
      <internalNodes>
        0 -1 70077 5.1426992285996675e-04</internalNodes>
      <leafValues>
        -5.5028164386749268e-01 8.6416149139404297e-01</leafValues></_></weakClassifiers></stage4>
</opencv_storage>
