<?xml version="1.0"?>
<opencv_storage>
<stage4>
  <maxWeakCount>6</maxWeakCount>
  <stageThreshold>-5.4752904176712036e-01</stageThreshold>
  <weakClassifiers>
    <_>
      <internalNodes>
        0 -1 4975 -1.1592605710029602e-01</internalNodes>
      <leafValues>
        6.9565218687057495e-01 -7.6923078298568726e-01</leafValues></_>
    <_>
      <internalNodes>
        0 -1 60527 -1.2218179181218147e-02</internalNodes>
      <leafValues>
        5.8625513315200806e-01 -8.2221519947052002e-01</leafValues></_>
    <_>
      <internalNodes>
        0 -1 144364 -5.5312920361757278e-02</internalNodes>
      <leafValues>
        4.2471513152122498e-01 -9.1346853971481323e-01</leafValues></_>
    <_>
      <internalNodes>
        0 -1 30304 -1.4033375307917595e-02</internalNodes>
      <leafValues>
        7.3413312435150146e-01 -6.1528027057647705e-01</leafValues></_>
    <_>
      <internalNodes>
        0 -1 8776 1.8340464681386948e-02</internalNodes>
      <leafValues>
        -7.3563593626022339e-01 6.8370997905731201e-01</leafValues></_>
    <_>
      <internalNodes>
        0 -1 72416 -8.8728526607155800e-03</internalNodes>
      <leafValues>
        5.5041790008544922e-01 -9.6848011016845703e-01</leafValues></_></weakClassifiers></stage4>
</opencv_storage>
